<?xml version="1.0"?>
<opencv_storage>
<cascade>
  <stageType>BOOST</stageType>
  <featureType>HAAR</featureType>
  <height>20</height>
  <width>20</width>
  <stageParams>
    <boostType>GAB</boostType>
    <minHitRate>9.9500000476837158e-01</minHitRate>
    <maxFalseAlarm>5.0000000000000000e-01</maxFalseAlarm>
    <weightTrimRate>9.4999998807907104e-01</weightTrimRate>
    <maxDepth>1</maxDepth>
    <maxWeakCount>100</maxWeakCount></stageParams>
  <featureParams>
    <maxCatCount>0</maxCatCount>
    <featSize>1</featSize>
    <mode>BASIC</mode></featureParams>
  <stageNum>2</stageNum>
  <stages>
    <!-- stage 0 -->
    <_>
      <maxWeakCount>2</maxWeakCount>
      <stageThreshold>-1.9673163890838623e+00</stageThreshold>
      <weakClassifiers>
        <_>
          <internalNodes>
            0 -1 5 1.4025683049112558e-04</internalNodes>
          <leafValues>
            -9.9604743719100952e-01 -1.</leafValues></_>
        <_>
          <internalNodes>
            0 -1 6 1.4025683049112558e-04</internalNodes>
          <leafValues>
            -9.7126901149749756e-01 -1.</leafValues></_></weakClassifiers></_>
    <!-- stage 1 -->
    <_>
      <maxWeakCount>10</maxWeakCount>
      <stageThreshold>-3.1345481872558594e+00</stageThreshold>
      <weakClassifiers>
        <_>
          <internalNodes>
            0 -1 3 1.8886663019657135e-04</internalNodes>
          <leafValues>
            -9.9712646007537842e-01 -1.</leafValues></_>
        <_>
          <internalNodes>
            0 -1 3 1.8886663019657135e-04</internalNodes>
          <leafValues>
            -9.7907954454421997e-01 -1.</leafValues></_>
        <_>
          <internalNodes>
            0 -1 3 1.8886663019657135e-04</internalNodes>
          <leafValues>
            -8.6062502861022949e-01 -1.</leafValues></_>
        <_>
          <internalNodes>
            0 -1 6 -1.2731221795547754e-04</internalNodes>
          <leafValues>
            -1. -4.0430706739425659e-01</leafValues></_>
        <_>
          <internalNodes>
            0 -1 4 2.7503722812980413e-03</internalNodes>
          <leafValues>
            8.9316396042704582e-04 -1.</leafValues></_>
        <_>
          <internalNodes>
            0 -1 2 -2.2040303156245500e-04</internalNodes>
          <leafValues>
            -1. 5.0984911620616913e-02</leafValues></_>
        <_>
          <internalNodes>
            0 -1 7 1.2964002962689847e-04</internalNodes>
          <leafValues>
            2.9240138828754425e-02 -1.</leafValues></_>
        <_>
          <internalNodes>
            0 -1 8 -2.8470607940107584e-03</internalNodes>
          <leafValues>
            -1. 5.2906759083271027e-03</leafValues></_>
        <_>
          <internalNodes>
            0 -1 1 -6.6120908595621586e-03</internalNodes>
          <leafValues>
            -1. 1.9374866038560867e-02</leafValues></_>
        <_>
          <internalNodes>
            0 -1 0 -6.7371004261076450e-03</internalNodes>
          <leafValues>
            -1. 8.0617953790351748e-04</leafValues></_></weakClassifiers></_></stages>
  <features>
    <_>
      <rects>
        <_>
          0 0 1 2 -1.</_>
        <_>
          0 1 1 1 2.</_></rects>
      <tilted>0</tilted></_>
    <_>
      <rects>
        <_>
          0 0 1 18 -1.</_>
        <_>
          0 6 1 6 3.</_></rects>
      <tilted>0</tilted></_>
    <_>
      <rects>
        <_>
          0 0 18 20 -1.</_>
        <_>
          6 0 6 20 3.</_></rects>
      <tilted>0</tilted></_>
    <_>
      <rects>
        <_>
          0 1 18 12 -1.</_>
        <_>
          0 5 18 4 3.</_></rects>
      <tilted>0</tilted></_>
    <_>
      <rects>
        <_>
          0 2 19 12 -1.</_>
        <_>
          0 6 19 4 3.</_></rects>
      <tilted>0</tilted></_>
    <_>
      <rects>
        <_>
          0 6 18 12 -1.</_>
        <_>
          0 10 18 4 3.</_></rects>
      <tilted>0</tilted></_>
    <_>
      <rects>
        <_>
          0 6 19 12 -1.</_>
        <_>
          0 10 19 4 3.</_></rects>
      <tilted>0</tilted></_>
    <_>
      <rects>
        <_>
          1 0 18 20 -1.</_>
        <_>
          7 0 6 20 3.</_></rects>
      <tilted>0</tilted></_>
    <_>
      <rects>
        <_>
          7 3 12 17 -1.</_>
        <_>
          11 3 4 17 3.</_></rects>
      <tilted>0</tilted></_></features></cascade>
</opencv_storage>
